Language model created by QuickLM on Fri Jul 28 08:30:27 EDT 2017
Copyright (c) 1996-2010 Carnegie Mellon University and Alexander I. Rudnicky

The model is in standard ARPA format, designed by Doug Paul while he was at MITRE.

The code that was used to produce this language model is available in Open Source.
Please visit http://www.speech.cs.cmu.edu/tools/ for more information

The (fixed) discount mass is 0.5. The backoffs are computed using the ratio method.
This model based on a corpus of 18 sentences and 32 words

\data\
ngram 1=32
ngram 2=49
ngram 3=32

\1-grams:
-0.8783 </s> -0.3010
-0.8783 <s> -0.2394
-2.1335 ALVIAN -0.2394
-2.1335 ANNA -0.2394
-2.1335 CAN -0.2946
-2.1335 DEFINES -0.2978
-2.1335 FIND -0.2978
-2.1335 GUNADARMA -0.2394
-2.1335 HAI -0.2394
-2.1335 HELLO -0.2394
-2.1335 HELP -0.2978
-2.1335 HI -0.2394
-2.1335 IS -0.2978
-2.1335 JEFRI -0.2394
-2.1335 LINTONG -0.2978
-2.1335 ME -0.2394
-2.1335 MEET -0.2946
-2.1335 MISSMARGIANTI -0.2394
-2.1335 MISTERDENNIS -0.2394
-2.1335 MISTERERY -0.2394
-2.1335 MISTERMAULANA -0.2394
-2.1335 MISTERMUSA -0.2394
-2.1335 NAME -0.2394
-2.1335 NICE -0.2978
-2.1335 OF -0.2978
-2.1335 RYUJI -0.2394
-2.1335 THANKS -0.2394
-2.1335 THANKYOU -0.2394
-2.1335 TO -0.2978
-1.8325 WHAT -0.2946
-1.8325 YOU -0.2357
-2.1335 YOUR -0.2978

\2-grams:
-1.5563 <s> ALVIAN 0.0000
-1.5563 <s> CAN 0.0000
-1.5563 <s> FIND 0.0000
-1.5563 <s> HAI 0.0000
-1.5563 <s> HELLO 0.0000
-1.5563 <s> HI 0.0000
-1.5563 <s> JEFRI 0.0000
-1.5563 <s> MISSMARGIANTI 0.0000
-1.5563 <s> MISTERDENNIS 0.0000
-1.5563 <s> MISTERERY 0.0000
-1.5563 <s> MISTERMAULANA 0.0000
-1.5563 <s> MISTERMUSA 0.0000
-1.5563 <s> NICE 0.0000
-1.5563 <s> RYUJI 0.0000
-1.5563 <s> THANKS 0.0000
-1.5563 <s> THANKYOU 0.0000
-1.2553 <s> WHAT 0.0000
-0.3010 ALVIAN </s> -0.3010
-0.3010 ANNA </s> -0.3010
-0.3010 CAN YOU -0.1761
-0.3010 DEFINES OF 0.0000
-0.3010 FIND LINTONG 0.0000
-0.3010 GUNADARMA </s> -0.3010
-0.3010 HAI </s> -0.3010
-0.3010 HELLO </s> -0.3010
-0.3010 HELP ME 0.0000
-0.3010 HI </s> -0.3010
-0.3010 IS YOUR 0.0000
-0.3010 JEFRI </s> -0.3010
-0.3010 LINTONG ANNA 0.0000
-0.3010 ME </s> -0.3010
-0.3010 MEET YOU -0.1761
-0.3010 MISSMARGIANTI </s> -0.3010
-0.3010 MISTERDENNIS </s> -0.3010
-0.3010 MISTERERY </s> -0.3010
-0.3010 MISTERMAULANA </s> -0.3010
-0.3010 MISTERMUSA </s> -0.3010
-0.3010 NAME </s> -0.3010
-0.3010 NICE TO 0.0000
-0.3010 OF GUNADARMA 0.0000
-0.3010 RYUJI </s> -0.3010
-0.3010 THANKS </s> -0.3010
-0.3010 THANKYOU </s> -0.3010
-0.3010 TO MEET 0.0000
-0.6021 WHAT DEFINES 0.0000
-0.6021 WHAT IS 0.0000
-0.6021 YOU </s> -0.3010
-0.6021 YOU HELP 0.0000
-0.3010 YOUR NAME 0.0000

\3-grams:
-0.3010 <s> ALVIAN </s>
-0.3010 <s> CAN YOU
-0.3010 <s> FIND LINTONG
-0.3010 <s> HAI </s>
-0.3010 <s> HELLO </s>
-0.3010 <s> HI </s>
-0.3010 <s> JEFRI </s>
-0.3010 <s> MISSMARGIANTI </s>
-0.3010 <s> MISTERDENNIS </s>
-0.3010 <s> MISTERERY </s>
-0.3010 <s> MISTERMAULANA </s>
-0.3010 <s> MISTERMUSA </s>
-0.3010 <s> NICE TO
-0.3010 <s> RYUJI </s>
-0.3010 <s> THANKS </s>
-0.3010 <s> THANKYOU </s>
-0.6021 <s> WHAT DEFINES
-0.6021 <s> WHAT IS
-0.3010 CAN YOU HELP
-0.3010 DEFINES OF GUNADARMA
-0.3010 FIND LINTONG ANNA
-0.3010 HELP ME </s>
-0.3010 IS YOUR NAME
-0.3010 LINTONG ANNA </s>
-0.3010 MEET YOU </s>
-0.3010 NICE TO MEET
-0.3010 OF GUNADARMA </s>
-0.3010 TO MEET YOU
-0.3010 WHAT DEFINES OF
-0.3010 WHAT IS YOUR
-0.3010 YOU HELP ME
-0.3010 YOUR NAME </s>

\end\
